digraph Tree {
node [shape=box, style="filled, rounded", color="black", fontname="helvetica"] ;
edge [fontname="helvetica"] ;
0 [label=<X<SUB>6</SUB> &le; 0.5<br/>entropy = 1.0<br/>samples = 113<br/>value = [56, 57]>, fillcolor="#fcfdff"] ;
1 [label=<X<SUB>0</SUB> &le; 0.653<br/>entropy = 0.811<br/>samples = 48<br/>value = [36, 12]>, fillcolor="#eeab7b"] ;
0 -> 1 [labeldistance=2.5, labelangle=45, headlabel="True"] ;
2 [label=<X<SUB>14</SUB> &le; 0.5<br/>entropy = 0.89<br/>samples = 39<br/>value = [27, 12]>, fillcolor="#f1b991"] ;
1 -> 2 ;
3 [label=<X<SUB>1</SUB> &le; 0.046<br/>entropy = 1.0<br/>samples = 14<br/>value = [7, 7]>, fillcolor="#ffffff"] ;
2 -> 3 ;
4 [label=<entropy = 0.0<br/>samples = 3<br/>value = [3, 0]>, fillcolor="#e58139"] ;
3 -> 4 ;
5 [label=<X<SUB>0</SUB> &le; 0.129<br/>entropy = 0.946<br/>samples = 11<br/>value = [4, 7]>, fillcolor="#aad5f4"] ;
3 -> 5 ;
6 [label=<entropy = 0.0<br/>samples = 2<br/>value = [2, 0]>, fillcolor="#e58139"] ;
5 -> 6 ;
7 [label=<X<SUB>3</SUB> &le; 0.241<br/>entropy = 0.764<br/>samples = 9<br/>value = [2, 7]>, fillcolor="#72b9ec"] ;
5 -> 7 ;
8 [label=<X<SUB>2</SUB> &le; 0.188<br/>entropy = 1.0<br/>samples = 4<br/>value = [2, 2]>, fillcolor="#ffffff"] ;
7 -> 8 ;
9 [label=<entropy = 0.0<br/>samples = 2<br/>value = [0, 2]>, fillcolor="#399de5"] ;
8 -> 9 ;
10 [label=<entropy = 0.0<br/>samples = 2<br/>value = [2, 0]>, fillcolor="#e58139"] ;
8 -> 10 ;
11 [label=<entropy = 0.0<br/>samples = 5<br/>value = [0, 5]>, fillcolor="#399de5"] ;
7 -> 11 ;
12 [label=<X<SUB>2</SUB> &le; 0.119<br/>entropy = 0.722<br/>samples = 25<br/>value = [20, 5]>, fillcolor="#eca06a"] ;
2 -> 12 ;
13 [label=<X<SUB>7</SUB> &le; 0.5<br/>entropy = 1.0<br/>samples = 6<br/>value = [3, 3]>, fillcolor="#ffffff"] ;
12 -> 13 ;
14 [label=<X<SUB>0</SUB> &le; 0.141<br/>entropy = 0.811<br/>samples = 4<br/>value = [3, 1]>, fillcolor="#eeab7b"] ;
13 -> 14 ;
15 [label=<entropy = 0.0<br/>samples = 1<br/>value = [0, 1]>, fillcolor="#399de5"] ;
14 -> 15 ;
16 [label=<entropy = 0.0<br/>samples = 3<br/>value = [3, 0]>, fillcolor="#e58139"] ;
14 -> 16 ;
17 [label=<entropy = 0.0<br/>samples = 2<br/>value = [0, 2]>, fillcolor="#399de5"] ;
13 -> 17 ;
18 [label=<X<SUB>2</SUB> &le; 0.4<br/>entropy = 0.485<br/>samples = 19<br/>value = [17, 2]>, fillcolor="#e89050"] ;
12 -> 18 ;
19 [label=<X<SUB>0</SUB> &le; 0.646<br/>entropy = 0.31<br/>samples = 18<br/>value = [17, 1]>, fillcolor="#e78845"] ;
18 -> 19 ;
20 [label=<entropy = 0.0<br/>samples = 17<br/>value = [17, 0]>, fillcolor="#e58139"] ;
19 -> 20 ;
21 [label=<entropy = 0.0<br/>samples = 1<br/>value = [0, 1]>, fillcolor="#399de5"] ;
19 -> 21 ;
22 [label=<entropy = 0.0<br/>samples = 1<br/>value = [0, 1]>, fillcolor="#399de5"] ;
18 -> 22 ;
23 [label=<entropy = 0.0<br/>samples = 9<br/>value = [9, 0]>, fillcolor="#e58139"] ;
1 -> 23 ;
24 [label=<X<SUB>1</SUB> &le; 0.03<br/>entropy = 0.89<br/>samples = 65<br/>value = [20, 45]>, fillcolor="#91c9f1"] ;
0 -> 24 [labeldistance=2.5, labelangle=-45, headlabel="False"] ;
25 [label=<entropy = 0.0<br/>samples = 3<br/>value = [3, 0]>, fillcolor="#e58139"] ;
24 -> 25 ;
26 [label=<X<SUB>0</SUB> &le; 0.435<br/>entropy = 0.847<br/>samples = 62<br/>value = [17, 45]>, fillcolor="#84c2ef"] ;
24 -> 26 ;
27 [label=<X<SUB>7</SUB> &le; 0.5<br/>entropy = 0.31<br/>samples = 18<br/>value = [1, 17]>, fillcolor="#45a3e7"] ;
26 -> 27 ;
28 [label=<X<SUB>13</SUB> &le; 0.5<br/>entropy = 1.0<br/>samples = 2<br/>value = [1, 1]>, fillcolor="#ffffff"] ;
27 -> 28 ;
29 [label=<entropy = 0.0<br/>samples = 1<br/>value = [0, 1]>, fillcolor="#399de5"] ;
28 -> 29 ;
30 [label=<entropy = 0.0<br/>samples = 1<br/>value = [1, 0]>, fillcolor="#e58139"] ;
28 -> 30 ;
31 [label=<entropy = 0.0<br/>samples = 16<br/>value = [0, 16]>, fillcolor="#399de5"] ;
27 -> 31 ;
32 [label=<X<SUB>1</SUB> &le; 0.172<br/>entropy = 0.946<br/>samples = 44<br/>value = [16, 28]>, fillcolor="#aad5f4"] ;
26 -> 32 ;
33 [label=<X<SUB>13</SUB> &le; 0.5<br/>entropy = 0.977<br/>samples = 17<br/>value = [10, 7]>, fillcolor="#f7d9c4"] ;
32 -> 33 ;
34 [label=<X<SUB>4</SUB> &le; 0.352<br/>entropy = 0.946<br/>samples = 11<br/>value = [4, 7]>, fillcolor="#aad5f4"] ;
33 -> 34 ;
35 [label=<X<SUB>9</SUB> &le; 0.5<br/>entropy = 0.918<br/>samples = 6<br/>value = [4, 2]>, fillcolor="#f2c09c"] ;
34 -> 35 ;
36 [label=<entropy = 0.0<br/>samples = 3<br/>value = [3, 0]>, fillcolor="#e58139"] ;
35 -> 36 ;
37 [label=<X<SUB>17</SUB> &le; 0.5<br/>entropy = 0.918<br/>samples = 3<br/>value = [1, 2]>, fillcolor="#9ccef2"] ;
35 -> 37 ;
38 [label=<entropy = 0.0<br/>samples = 2<br/>value = [0, 2]>, fillcolor="#399de5"] ;
37 -> 38 ;
39 [label=<entropy = 0.0<br/>samples = 1<br/>value = [1, 0]>, fillcolor="#e58139"] ;
37 -> 39 ;
40 [label=<entropy = 0.0<br/>samples = 5<br/>value = [0, 5]>, fillcolor="#399de5"] ;
34 -> 40 ;
41 [label=<entropy = 0.0<br/>samples = 6<br/>value = [6, 0]>, fillcolor="#e58139"] ;
33 -> 41 ;
42 [label=<X<SUB>1</SUB> &le; 0.204<br/>entropy = 0.764<br/>samples = 27<br/>value = [6, 21]>, fillcolor="#72b9ec"] ;
32 -> 42 ;
43 [label=<entropy = 0.0<br/>samples = 11<br/>value = [0, 11]>, fillcolor="#399de5"] ;
42 -> 43 ;
44 [label=<X<SUB>12</SUB> &le; 0.5<br/>entropy = 0.954<br/>samples = 16<br/>value = [6, 10]>, fillcolor="#b0d8f5"] ;
42 -> 44 ;
45 [label=<entropy = 0.0<br/>samples = 4<br/>value = [4, 0]>, fillcolor="#e58139"] ;
44 -> 45 ;
46 [label=<X<SUB>17</SUB> &le; 0.5<br/>entropy = 0.65<br/>samples = 12<br/>value = [2, 10]>, fillcolor="#61b1ea"] ;
44 -> 46 ;
47 [label=<entropy = 0.0<br/>samples = 8<br/>value = [0, 8]>, fillcolor="#399de5"] ;
46 -> 47 ;
48 [label=<X<SUB>10</SUB> &le; 0.5<br/>entropy = 1.0<br/>samples = 4<br/>value = [2, 2]>, fillcolor="#ffffff"] ;
46 -> 48 ;
49 [label=<X<SUB>0</SUB> &le; 0.803<br/>entropy = 0.918<br/>samples = 3<br/>value = [1, 2]>, fillcolor="#9ccef2"] ;
48 -> 49 ;
50 [label=<entropy = 0.0<br/>samples = 2<br/>value = [0, 2]>, fillcolor="#399de5"] ;
49 -> 50 ;
51 [label=<entropy = 0.0<br/>samples = 1<br/>value = [1, 0]>, fillcolor="#e58139"] ;
49 -> 51 ;
52 [label=<entropy = 0.0<br/>samples = 1<br/>value = [1, 0]>, fillcolor="#e58139"] ;
48 -> 52 ;
}