digraph Tree {
node [shape=box, style="filled, rounded", color="black", fontname="helvetica"] ;
edge [fontname="helvetica"] ;
0 [label=<X<SUB>0</SUB> &le; 0.487<br/>gini = 0.5<br/>samples = 113<br/>value = [56, 57]>, fillcolor="#fcfdff"] ;
1 [label=<X<SUB>0</SUB> &le; 0.436<br/>gini = 0.436<br/>samples = 53<br/>value = [17, 36]>, fillcolor="#96cbf1"] ;
0 -> 1 [labeldistance=2.5, labelangle=45, headlabel="True"] ;
2 [label=<X<SUB>4</SUB> &le; 0.188<br/>gini = 0.496<br/>samples = 33<br/>value = [15, 18]>, fillcolor="#deeffb"] ;
1 -> 2 ;
3 [label=<gini = 0.0<br/>samples = 8<br/>value = [8, 0]>, fillcolor="#e58139"] ;
2 -> 3 ;
4 [label=<X<SUB>13</SUB> &le; 0.5<br/>gini = 0.403<br/>samples = 25<br/>value = [7, 18]>, fillcolor="#86c3ef"] ;
2 -> 4 ;
5 [label=<X<SUB>0</SUB> &le; 0.362<br/>gini = 0.255<br/>samples = 20<br/>value = [3, 17]>, fillcolor="#5caeea"] ;
4 -> 5 ;
6 [label=<X<SUB>1</SUB> &le; 0.177<br/>gini = 0.111<br/>samples = 17<br/>value = [1, 16]>, fillcolor="#45a3e7"] ;
5 -> 6 ;
7 [label=<gini = 0.0<br/>samples = 16<br/>value = [0, 16]>, fillcolor="#399de5"] ;
6 -> 7 ;
8 [label=<gini = 0.0<br/>samples = 1<br/>value = [1, 0]>, fillcolor="#e58139"] ;
6 -> 8 ;
9 [label=<X<SUB>4</SUB> &le; 0.438<br/>gini = 0.444<br/>samples = 3<br/>value = [2, 1]>, fillcolor="#f2c09c"] ;
5 -> 9 ;
10 [label=<gini = 0.0<br/>samples = 2<br/>value = [2, 0]>, fillcolor="#e58139"] ;
9 -> 10 ;
11 [label=<gini = 0.0<br/>samples = 1<br/>value = [0, 1]>, fillcolor="#399de5"] ;
9 -> 11 ;
12 [label=<X<SUB>0</SUB> &le; 0.352<br/>gini = 0.32<br/>samples = 5<br/>value = [4, 1]>, fillcolor="#eca06a"] ;
4 -> 12 ;
13 [label=<gini = 0.0<br/>samples = 4<br/>value = [4, 0]>, fillcolor="#e58139"] ;
12 -> 13 ;
14 [label=<gini = 0.0<br/>samples = 1<br/>value = [0, 1]>, fillcolor="#399de5"] ;
12 -> 14 ;
15 [label=<X<SUB>4</SUB> &le; 0.063<br/>gini = 0.18<br/>samples = 20<br/>value = [2, 18]>, fillcolor="#4fa8e8"] ;
1 -> 15 ;
16 [label=<gini = 0.0<br/>samples = 1<br/>value = [1, 0]>, fillcolor="#e58139"] ;
15 -> 16 ;
17 [label=<X<SUB>4</SUB> &le; 0.638<br/>gini = 0.1<br/>samples = 19<br/>value = [1, 18]>, fillcolor="#44a2e6"] ;
15 -> 17 ;
18 [label=<gini = 0.0<br/>samples = 18<br/>value = [0, 18]>, fillcolor="#399de5"] ;
17 -> 18 ;
19 [label=<gini = 0.0<br/>samples = 1<br/>value = [1, 0]>, fillcolor="#e58139"] ;
17 -> 19 ;
20 [label=<X<SUB>2</SUB> &le; 0.036<br/>gini = 0.455<br/>samples = 60<br/>value = [39, 21]>, fillcolor="#f3c5a4"] ;
0 -> 20 [labeldistance=2.5, labelangle=-45, headlabel="False"] ;
21 [label=<gini = 0.0<br/>samples = 7<br/>value = [0, 7]>, fillcolor="#399de5"] ;
20 -> 21 ;
22 [label=<X<SUB>12</SUB> &le; 0.5<br/>gini = 0.389<br/>samples = 53<br/>value = [39, 14]>, fillcolor="#eeae80"] ;
20 -> 22 ;
23 [label=<X<SUB>3</SUB> &le; 0.574<br/>gini = 0.26<br/>samples = 39<br/>value = [33, 6]>, fillcolor="#ea985d"] ;
22 -> 23 ;
24 [label=<X<SUB>3</SUB> &le; 0.093<br/>gini = 0.161<br/>samples = 34<br/>value = [31, 3]>, fillcolor="#e88d4c"] ;
23 -> 24 ;
25 [label=<X<SUB>13</SUB> &le; 0.5<br/>gini = 0.5<br/>samples = 2<br/>value = [1, 1]>, fillcolor="#ffffff"] ;
24 -> 25 ;
26 [label=<gini = 0.0<br/>samples = 1<br/>value = [0, 1]>, fillcolor="#399de5"] ;
25 -> 26 ;
27 [label=<gini = 0.0<br/>samples = 1<br/>value = [1, 0]>, fillcolor="#e58139"] ;
25 -> 27 ;
28 [label=<X<SUB>2</SUB> &le; 0.334<br/>gini = 0.117<br/>samples = 32<br/>value = [30, 2]>, fillcolor="#e78946"] ;
24 -> 28 ;
29 [label=<gini = 0.0<br/>samples = 23<br/>value = [23, 0]>, fillcolor="#e58139"] ;
28 -> 29 ;
30 [label=<X<SUB>1</SUB> &le; 0.162<br/>gini = 0.346<br/>samples = 9<br/>value = [7, 2]>, fillcolor="#eca572"] ;
28 -> 30 ;
31 [label=<X<SUB>1</SUB> &le; 0.069<br/>gini = 0.444<br/>samples = 3<br/>value = [1, 2]>, fillcolor="#9ccef2"] ;
30 -> 31 ;
32 [label=<gini = 0.0<br/>samples = 1<br/>value = [1, 0]>, fillcolor="#e58139"] ;
31 -> 32 ;
33 [label=<gini = 0.0<br/>samples = 2<br/>value = [0, 2]>, fillcolor="#399de5"] ;
31 -> 33 ;
34 [label=<gini = 0.0<br/>samples = 6<br/>value = [6, 0]>, fillcolor="#e58139"] ;
30 -> 34 ;
35 [label=<X<SUB>4</SUB> &le; 0.588<br/>gini = 0.48<br/>samples = 5<br/>value = [2, 3]>, fillcolor="#bddef6"] ;
23 -> 35 ;
36 [label=<gini = 0.0<br/>samples = 3<br/>value = [0, 3]>, fillcolor="#399de5"] ;
35 -> 36 ;
37 [label=<gini = 0.0<br/>samples = 2<br/>value = [2, 0]>, fillcolor="#e58139"] ;
35 -> 37 ;
38 [label=<X<SUB>1</SUB> &le; 0.142<br/>gini = 0.49<br/>samples = 14<br/>value = [6, 8]>, fillcolor="#cee6f8"] ;
22 -> 38 ;
39 [label=<gini = 0.0<br/>samples = 4<br/>value = [4, 0]>, fillcolor="#e58139"] ;
38 -> 39 ;
40 [label=<X<SUB>4</SUB> &le; 0.638<br/>gini = 0.32<br/>samples = 10<br/>value = [2, 8]>, fillcolor="#6ab6ec"] ;
38 -> 40 ;
41 [label=<gini = 0.0<br/>samples = 7<br/>value = [0, 7]>, fillcolor="#399de5"] ;
40 -> 41 ;
42 [label=<X<SUB>3</SUB> &le; 0.889<br/>gini = 0.444<br/>samples = 3<br/>value = [2, 1]>, fillcolor="#f2c09c"] ;
40 -> 42 ;
43 [label=<gini = 0.0<br/>samples = 2<br/>value = [2, 0]>, fillcolor="#e58139"] ;
42 -> 43 ;
44 [label=<gini = 0.0<br/>samples = 1<br/>value = [0, 1]>, fillcolor="#399de5"] ;
42 -> 44 ;
}