digraph Tree {
node [shape=box, style="filled, rounded", color="black", fontname="helvetica"] ;
edge [fontname="helvetica"] ;
0 [label=<X<SUB>1</SUB> &le; 0.5<br/>entropy = 1.0<br/>samples = 113<br/>value = [57, 56]>, fillcolor="#fffdfc"] ;
1 [label=<X<SUB>14</SUB> &le; 3.5<br/>entropy = 0.931<br/>samples = 49<br/>value = [32, 17]>, fillcolor="#f3c4a2"] ;
0 -> 1 [labeldistance=2.5, labelangle=45, headlabel="True"] ;
2 [label=<X<SUB>11</SUB> &le; 0.5<br/>entropy = 0.995<br/>samples = 35<br/>value = [19, 16]>, fillcolor="#fbebe0"] ;
1 -> 2 ;
3 [label=<X<SUB>16</SUB> &le; 3.5<br/>entropy = 0.469<br/>samples = 10<br/>value = [9, 1]>, fillcolor="#e88f4f"] ;
2 -> 3 ;
4 [label=<entropy = 0.0<br/>samples = 7<br/>value = [7, 0]>, fillcolor="#e58139"] ;
3 -> 4 ;
5 [label=<X<SUB>0</SUB> &le; 0.5<br/>entropy = 0.918<br/>samples = 3<br/>value = [2, 1]>, fillcolor="#f2c09c"] ;
3 -> 5 ;
6 [label=<entropy = 0.0<br/>samples = 2<br/>value = [2, 0]>, fillcolor="#e58139"] ;
5 -> 6 ;
7 [label=<entropy = 0.0<br/>samples = 1<br/>value = [0, 1]>, fillcolor="#399de5"] ;
5 -> 7 ;
8 [label=<X<SUB>15</SUB> &le; 2.5<br/>entropy = 0.971<br/>samples = 25<br/>value = [10, 15]>, fillcolor="#bddef6"] ;
2 -> 8 ;
9 [label=<X<SUB>7</SUB> &le; 0.5<br/>entropy = 0.902<br/>samples = 22<br/>value = [7, 15]>, fillcolor="#95cbf1"] ;
8 -> 9 ;
10 [label=<X<SUB>9</SUB> &le; 0.5<br/>entropy = 0.964<br/>samples = 18<br/>value = [7, 11]>, fillcolor="#b7dbf6"] ;
9 -> 10 ;
11 [label=<X<SUB>13</SUB> &le; 3.5<br/>entropy = 0.811<br/>samples = 12<br/>value = [3, 9]>, fillcolor="#7bbeee"] ;
10 -> 11 ;
12 [label=<X<SUB>13</SUB> &le; 0.5<br/>entropy = 0.684<br/>samples = 11<br/>value = [2, 9]>, fillcolor="#65b3eb"] ;
11 -> 12 ;
13 [label=<X<SUB>14</SUB> &le; 0.5<br/>entropy = 0.971<br/>samples = 5<br/>value = [2, 3]>, fillcolor="#bddef6"] ;
12 -> 13 ;
14 [label=<entropy = 0.0<br/>samples = 3<br/>value = [0, 3]>, fillcolor="#399de5"] ;
13 -> 14 ;
15 [label=<entropy = 0.0<br/>samples = 2<br/>value = [2, 0]>, fillcolor="#e58139"] ;
13 -> 15 ;
16 [label=<entropy = 0.0<br/>samples = 6<br/>value = [0, 6]>, fillcolor="#399de5"] ;
12 -> 16 ;
17 [label=<entropy = 0.0<br/>samples = 1<br/>value = [1, 0]>, fillcolor="#e58139"] ;
11 -> 17 ;
18 [label=<X<SUB>17</SUB> &le; 2.5<br/>entropy = 0.918<br/>samples = 6<br/>value = [4, 2]>, fillcolor="#f2c09c"] ;
10 -> 18 ;
19 [label=<X<SUB>13</SUB> &le; 2.5<br/>entropy = 0.722<br/>samples = 5<br/>value = [4, 1]>, fillcolor="#eca06a"] ;
18 -> 19 ;
20 [label=<entropy = 0.0<br/>samples = 4<br/>value = [4, 0]>, fillcolor="#e58139"] ;
19 -> 20 ;
21 [label=<entropy = 0.0<br/>samples = 1<br/>value = [0, 1]>, fillcolor="#399de5"] ;
19 -> 21 ;
22 [label=<entropy = 0.0<br/>samples = 1<br/>value = [0, 1]>, fillcolor="#399de5"] ;
18 -> 22 ;
23 [label=<entropy = 0.0<br/>samples = 4<br/>value = [0, 4]>, fillcolor="#399de5"] ;
9 -> 23 ;
24 [label=<entropy = 0.0<br/>samples = 3<br/>value = [3, 0]>, fillcolor="#e58139"] ;
8 -> 24 ;
25 [label=<X<SUB>8</SUB> &le; 0.5<br/>entropy = 0.371<br/>samples = 14<br/>value = [13, 1]>, fillcolor="#e78b48"] ;
1 -> 25 ;
26 [label=<entropy = 0.0<br/>samples = 13<br/>value = [13, 0]>, fillcolor="#e58139"] ;
25 -> 26 ;
27 [label=<entropy = 0.0<br/>samples = 1<br/>value = [0, 1]>, fillcolor="#399de5"] ;
25 -> 27 ;
28 [label=<X<SUB>17</SUB> &le; 0.5<br/>entropy = 0.965<br/>samples = 64<br/>value = [25, 39]>, fillcolor="#b8dcf6"] ;
0 -> 28 [labeldistance=2.5, labelangle=-45, headlabel="False"] ;
29 [label=<entropy = 0.0<br/>samples = 8<br/>value = [0, 8]>, fillcolor="#399de5"] ;
28 -> 29 ;
30 [label=<X<SUB>15</SUB> &le; 2.5<br/>entropy = 0.992<br/>samples = 56<br/>value = [25, 31]>, fillcolor="#d9ecfa"] ;
28 -> 30 ;
31 [label=<X<SUB>14</SUB> &le; 2.5<br/>entropy = 0.928<br/>samples = 32<br/>value = [11, 21]>, fillcolor="#a1d0f3"] ;
30 -> 31 ;
32 [label=<X<SUB>8</SUB> &le; 0.5<br/>entropy = 0.755<br/>samples = 23<br/>value = [5, 18]>, fillcolor="#70b8ec"] ;
31 -> 32 ;
33 [label=<X<SUB>10</SUB> &le; 0.5<br/>entropy = 0.469<br/>samples = 20<br/>value = [2, 18]>, fillcolor="#4fa8e8"] ;
32 -> 33 ;
34 [label=<X<SUB>7</SUB> &le; 0.5<br/>entropy = 0.297<br/>samples = 19<br/>value = [1, 18]>, fillcolor="#44a2e6"] ;
33 -> 34 ;
35 [label=<entropy = 0.0<br/>samples = 11<br/>value = [0, 11]>, fillcolor="#399de5"] ;
34 -> 35 ;
36 [label=<X<SUB>15</SUB> &le; 0.5<br/>entropy = 0.544<br/>samples = 8<br/>value = [1, 7]>, fillcolor="#55abe9"] ;
34 -> 36 ;
37 [label=<entropy = 0.0<br/>samples = 5<br/>value = [0, 5]>, fillcolor="#399de5"] ;
36 -> 37 ;
38 [label=<X<SUB>3</SUB> &le; 0.5<br/>entropy = 0.918<br/>samples = 3<br/>value = [1, 2]>, fillcolor="#9ccef2"] ;
36 -> 38 ;
39 [label=<entropy = 0.0<br/>samples = 2<br/>value = [0, 2]>, fillcolor="#399de5"] ;
38 -> 39 ;
40 [label=<entropy = 0.0<br/>samples = 1<br/>value = [1, 0]>, fillcolor="#e58139"] ;
38 -> 40 ;
41 [label=<entropy = 0.0<br/>samples = 1<br/>value = [1, 0]>, fillcolor="#e58139"] ;
33 -> 41 ;
42 [label=<entropy = 0.0<br/>samples = 3<br/>value = [3, 0]>, fillcolor="#e58139"] ;
32 -> 42 ;
43 [label=<X<SUB>7</SUB> &le; 0.5<br/>entropy = 0.918<br/>samples = 9<br/>value = [6, 3]>, fillcolor="#f2c09c"] ;
31 -> 43 ;
44 [label=<entropy = 0.0<br/>samples = 5<br/>value = [5, 0]>, fillcolor="#e58139"] ;
43 -> 44 ;
45 [label=<X<SUB>2</SUB> &le; 0.5<br/>entropy = 0.811<br/>samples = 4<br/>value = [1, 3]>, fillcolor="#7bbeee"] ;
43 -> 45 ;
46 [label=<entropy = 0.0<br/>samples = 1<br/>value = [1, 0]>, fillcolor="#e58139"] ;
45 -> 46 ;
47 [label=<entropy = 0.0<br/>samples = 3<br/>value = [0, 3]>, fillcolor="#399de5"] ;
45 -> 47 ;
48 [label=<X<SUB>15</SUB> &le; 3.5<br/>entropy = 0.98<br/>samples = 24<br/>value = [14, 10]>, fillcolor="#f8dbc6"] ;
30 -> 48 ;
49 [label=<entropy = 0.0<br/>samples = 7<br/>value = [7, 0]>, fillcolor="#e58139"] ;
48 -> 49 ;
50 [label=<X<SUB>14</SUB> &le; 0.5<br/>entropy = 0.977<br/>samples = 17<br/>value = [7, 10]>, fillcolor="#c4e2f7"] ;
48 -> 50 ;
51 [label=<entropy = 0.0<br/>samples = 4<br/>value = [4, 0]>, fillcolor="#e58139"] ;
50 -> 51 ;
52 [label=<X<SUB>7</SUB> &le; 0.5<br/>entropy = 0.779<br/>samples = 13<br/>value = [3, 10]>, fillcolor="#74baed"] ;
50 -> 52 ;
53 [label=<X<SUB>14</SUB> &le; 2.0<br/>entropy = 1.0<br/>samples = 4<br/>value = [2, 2]>, fillcolor="#ffffff"] ;
52 -> 53 ;
54 [label=<entropy = 0.0<br/>samples = 2<br/>value = [0, 2]>, fillcolor="#399de5"] ;
53 -> 54 ;
55 [label=<entropy = 0.0<br/>samples = 2<br/>value = [2, 0]>, fillcolor="#e58139"] ;
53 -> 55 ;
56 [label=<X<SUB>5</SUB> &le; 0.5<br/>entropy = 0.503<br/>samples = 9<br/>value = [1, 8]>, fillcolor="#52a9e8"] ;
52 -> 56 ;
57 [label=<entropy = 0.0<br/>samples = 6<br/>value = [0, 6]>, fillcolor="#399de5"] ;
56 -> 57 ;
58 [label=<X<SUB>16</SUB> &le; 3.5<br/>entropy = 0.918<br/>samples = 3<br/>value = [1, 2]>, fillcolor="#9ccef2"] ;
56 -> 58 ;
59 [label=<entropy = 0.0<br/>samples = 2<br/>value = [0, 2]>, fillcolor="#399de5"] ;
58 -> 59 ;
60 [label=<entropy = 0.0<br/>samples = 1<br/>value = [1, 0]>, fillcolor="#e58139"] ;
58 -> 60 ;
}